<?xml version="1.0"?>
<opencv_storage>
<cascade>
  <stageType>BOOST</stageType>
  <featureType>HAAR</featureType>
  <height>48</height>
  <width>48</width>
  <stageParams>
    <boostType>GAB</boostType>
    <minHitRate>9.9500000476837158e-01</minHitRate>
    <maxFalseAlarm>5.0000000000000000e-01</maxFalseAlarm>
    <weightTrimRate>9.4999999999999996e-01</weightTrimRate>
    <maxDepth>1</maxDepth>
    <maxWeakCount>100</maxWeakCount></stageParams>
  <featureParams>
    <maxCatCount>0</maxCatCount>
    <featSize>1</featSize>
    <mode>BASIC</mode></featureParams>
  <stageNum>7</stageNum>
  <stages>
    <!-- stage 0 -->
    <_>
      <maxWeakCount>2</maxWeakCount>
      <stageThreshold>-1.4440596103668213e-01</stageThreshold>
      <weakClassifiers>
        <_>
          <internalNodes>
            0 -1 4 -9.2214345932006836e-02</internalNodes>
          <leafValues>
            9.2405062913894653e-01 -8.5650223493576050e-01</leafValues></_>
        <_>
          <internalNodes>
            0 -1 16 -9.7084287554025650e-03</internalNodes>
          <leafValues>
            7.1209627389907837e-01 -8.6372971534729004e-01</leafValues></_></weakClassifiers></_>
    <!-- stage 1 -->
    <_>
      <maxWeakCount>4</maxWeakCount>
      <stageThreshold>-7.8695106506347656e-01</stageThreshold>
      <weakClassifiers>
        <_>
          <internalNodes>
            0 -1 0 -1.9888286292552948e-01</internalNodes>
          <leafValues>
            8.6776858568191528e-01 -6.3736265897750854e-01</leafValues></_>
        <_>
          <internalNodes>
            0 -1 18 -2.7391295880079269e-03</internalNodes>
          <leafValues>
            5.2571660280227661e-01 -9.0710449218750000e-01</leafValues></_>
        <_>
          <internalNodes>
            0 -1 10 1.2016738764941692e-03</internalNodes>
          <leafValues>
            -9.9200987815856934e-01 3.5708552598953247e-01</leafValues></_>
        <_>
          <internalNodes>
            0 -1 21 3.3689582323859213e-06</internalNodes>
          <leafValues>
            -8.3045792579650879e-01 4.0043056011199951e-01</leafValues></_></weakClassifiers></_>
    <!-- stage 2 -->
    <_>
      <maxWeakCount>4</maxWeakCount>
      <stageThreshold>-7.6905661821365356e-01</stageThreshold>
      <weakClassifiers>
        <_>
          <internalNodes>
            0 -1 1 -2.1213650703430176e-01</internalNodes>
          <leafValues>
            7.9256361722946167e-01 -6.4391690492630005e-01</leafValues></_>
        <_>
          <internalNodes>
            0 -1 6 1.8842202844098210e-03</internalNodes>
          <leafValues>
            4.3309333920478821e-01 -9.5966106653213501e-01</leafValues></_>
        <_>
          <internalNodes>
            0 -1 9 2.3635267280042171e-03</internalNodes>
          <leafValues>
            -9.1654157638549805e-01 3.1237488985061646e-01</leafValues></_>
        <_>
          <internalNodes>
            0 -1 11 -2.7150782989338040e-04</internalNodes>
          <leafValues>
            3.5830855369567871e-01 -8.1560701131820679e-01</leafValues></_></weakClassifiers></_>
    <!-- stage 3 -->
    <_>
      <maxWeakCount>4</maxWeakCount>
      <stageThreshold>-4.3905976414680481e-01</stageThreshold>
      <weakClassifiers>
        <_>
          <internalNodes>
            0 -1 8 -2.7315884828567505e-02</internalNodes>
          <leafValues>
            6.9917958974838257e-01 -6.5275460481643677e-01</leafValues></_>
        <_>
          <internalNodes>
            0 -1 3 -4.5763645321130753e-03</internalNodes>
          <leafValues>
            4.6495535969734192e-01 -7.8680598735809326e-01</leafValues></_>
        <_>
          <internalNodes>
            0 -1 20 -2.7689081889548106e-06</internalNodes>
          <leafValues>
            6.1675912141799927e-01 -5.2242839336395264e-01</leafValues></_>
        <_>
          <internalNodes>
            0 -1 23 1.1967430327786133e-04</internalNodes>
          <leafValues>
            -8.6801964044570923e-01 4.2887341976165771e-01</leafValues></_></weakClassifiers></_>
    <!-- stage 4 -->
    <_>
      <maxWeakCount>3</maxWeakCount>
      <stageThreshold>2.8895825147628784e-02</stageThreshold>
      <weakClassifiers>
        <_>
          <internalNodes>
            0 -1 24 -3.7021912634372711e-02</internalNodes>
          <leafValues>
            7.7570092678070068e-01 -7.2523963451385498e-01</leafValues></_>
        <_>
          <internalNodes>
            0 -1 13 -3.0336563941091299e-04</internalNodes>
          <leafValues>
            -9.6307486295700073e-01 4.3339234590530396e-01</leafValues></_>
        <_>
          <internalNodes>
            0 -1 17 9.8157976754009724e-04</internalNodes>
          <leafValues>
            3.2074308395385742e-01 -9.6123814582824707e-01</leafValues></_></weakClassifiers></_>
    <!-- stage 5 -->
    <_>
      <maxWeakCount>4</maxWeakCount>
      <stageThreshold>-7.5188797712326050e-01</stageThreshold>
      <weakClassifiers>
        <_>
          <internalNodes>
            0 -1 2 -2.8472673892974854e-01</internalNodes>
          <leafValues>
            7.9025423526763916e-01 -4.9202126264572144e-01</leafValues></_>
        <_>
          <internalNodes>
            0 -1 19 -1.0093720629811287e-03</internalNodes>
          <leafValues>
            -9.8272341489791870e-01 3.9494064450263977e-01</leafValues></_>
        <_>
          <internalNodes>
            0 -1 5 6.2550287693738937e-03</internalNodes>
          <leafValues>
            3.1895443797111511e-01 -8.8374841213226318e-01</leafValues></_>
        <_>
          <internalNodes>
            0 -1 12 6.0439284425228834e-04</internalNodes>
          <leafValues>
            -9.7533547878265381e-01 2.2894102334976196e-01</leafValues></_></weakClassifiers></_>
    <!-- stage 6 -->
    <_>
      <maxWeakCount>4</maxWeakCount>
      <stageThreshold>-4.3720996379852295e-01</stageThreshold>
      <weakClassifiers>
        <_>
          <internalNodes>
            0 -1 14 4.6022543683648109e-03</internalNodes>
          <leafValues>
            6.0963857173919678e-01 -8.4922397136688232e-01</leafValues></_>
        <_>
          <internalNodes>
            0 -1 7 8.5427667945623398e-03</internalNodes>
          <leafValues>
            -6.7834103107452393e-01 6.1432880163192749e-01</leafValues></_>
        <_>
          <internalNodes>
            0 -1 22 -3.2368043321184814e-06</internalNodes>
          <leafValues>
            6.2527227401733398e-01 -5.2457720041275024e-01</leafValues></_>
        <_>
          <internalNodes>
            0 -1 15 -4.1470810538157821e-04</internalNodes>
          <leafValues>
            4.6508273482322693e-01 -8.0215793848037720e-01</leafValues></_></weakClassifiers></_></stages>
  <features>
    <_>
      <rects>
        <_>
          0 4 42 33 -1.</_>
        <_>
          14 4 14 33 3.</_></rects>
      <tilted>0</tilted></_>
    <_>
      <rects>
        <_>
          3 3 42 40 -1.</_>
        <_>
          17 3 14 40 3.</_></rects>
      <tilted>0</tilted></_>
    <_>
      <rects>
        <_>
          3 5 45 38 -1.</_>
        <_>
          18 5 15 38 3.</_></rects>
      <tilted>0</tilted></_>
    <_>
      <rects>
        <_>
          4 17 21 10 -1.</_>
        <_>
          11 17 7 10 3.</_></rects>
      <tilted>0</tilted></_>
    <_>
      <rects>
        <_>
          5 9 39 26 -1.</_>
        <_>
          18 9 13 26 3.</_></rects>
      <tilted>0</tilted></_>
    <_>
      <rects>
        <_>
          7 15 30 14 -1.</_>
        <_>
          7 22 30 7 2.</_></rects>
      <tilted>0</tilted></_>
    <_>
      <rects>
        <_>
          7 17 30 10 -1.</_>
        <_>
          22 17 15 10 2.</_></rects>
      <tilted>0</tilted></_>
    <_>
      <rects>
        <_>
          9 9 12 18 -1.</_>
        <_>
          9 9 6 9 2.</_>
        <_>
          15 18 6 9 2.</_></rects>
      <tilted>0</tilted></_>
    <_>
      <rects>
        <_>
          11 0 3 45 -1.</_>
        <_>
          11 15 3 15 3.</_></rects>
      <tilted>0</tilted></_>
    <_>
      <rects>
        <_>
          13 15 26 6 -1.</_>
        <_>
          26 15 13 6 2.</_></rects>
      <tilted>0</tilted></_>
    <_>
      <rects>
        <_>
          13 18 26 9 -1.</_>
        <_>
          26 18 13 9 2.</_></rects>
      <tilted>0</tilted></_>
    <_>
      <rects>
        <_>
          16 9 11 4 -1.</_>
        <_>
          16 11 11 2 2.</_></rects>
      <tilted>0</tilted></_>
    <_>
      <rects>
        <_>
          16 15 20 12 -1.</_>
        <_>
          26 15 10 12 2.</_></rects>
      <tilted>0</tilted></_>
    <_>
      <rects>
        <_>
          18 14 9 16 -1.</_>
        <_>
          18 22 9 8 2.</_></rects>
      <tilted>0</tilted></_>
    <_>
      <rects>
        <_>
          18 17 16 12 -1.</_>
        <_>
          26 17 8 12 2.</_></rects>
      <tilted>0</tilted></_>
    <_>
      <rects>
        <_>
          20 25 6 15 -1.</_>
        <_>
          20 30 6 5 3.</_></rects>
      <tilted>0</tilted></_>
    <_>
      <rects>
        <_>
          21 1 7 16 -1.</_>
        <_>
          21 9 7 8 2.</_></rects>
      <tilted>0</tilted></_>
    <_>
      <rects>
        <_>
          21 12 5 30 -1.</_>
        <_>
          21 22 5 10 3.</_></rects>
      <tilted>0</tilted></_>
    <_>
      <rects>
        <_>
          21 16 21 14 -1.</_>
        <_>
          28 16 7 14 3.</_></rects>
      <tilted>0</tilted></_>
    <_>
      <rects>
        <_>
          22 15 11 14 -1.</_>
        <_>
          22 22 11 7 2.</_></rects>
      <tilted>0</tilted></_>
    <_>
      <rects>
        <_>
          22 23 2 2 -1.</_>
        <_>
          22 23 1 1 2.</_>
        <_>
          23 24 1 1 2.</_></rects>
      <tilted>0</tilted></_>
    <_>
      <rects>
        <_>
          23 24 2 2 -1.</_>
        <_>
          23 25 2 1 2.</_></rects>
      <tilted>0</tilted></_>
    <_>
      <rects>
        <_>
          24 22 1 2 -1.</_>
        <_>
          24 23 1 1 2.</_></rects>
      <tilted>0</tilted></_>
    <_>
      <rects>
        <_>
          29 14 4 10 -1.</_>
        <_>
          31 14 2 10 2.</_></rects>
      <tilted>0</tilted></_>
    <_>
      <rects>
        <_>
          32 0 5 45 -1.</_>
        <_>
          32 15 5 15 3.</_></rects>
      <tilted>0</tilted></_></features></cascade>
</opencv_storage>
