<?xml version="1.0"?>
<opencv_storage>
<cascade>
  <stageType>BOOST</stageType>
  <featureType>LBP</featureType>
  <height>48</height>
  <width>48</width>
  <stageParams>
    <boostType>GAB</boostType>
    <minHitRate>9.9900001287460327e-01</minHitRate>
    <maxFalseAlarm>5.0000000000000000e-01</maxFalseAlarm>
    <weightTrimRate>9.4999999999999996e-01</weightTrimRate>
    <maxDepth>1</maxDepth>
    <maxWeakCount>100</maxWeakCount></stageParams>
  <featureParams>
    <maxCatCount>256</maxCatCount>
    <featSize>1</featSize></featureParams>
  <stageNum>20</stageNum>
  <stages>
    <!-- stage 0 -->
    <_>
      <maxWeakCount>2</maxWeakCount>
      <stageThreshold>-6.7568589001893997e-03</stageThreshold>
      <weakClassifiers>
        <_>
          <internalNodes>
            0 -1 16 -1 -7733249 -1 -1 -973471745 123535229 -1 -1</internalNodes>
          <leafValues>
            -9.5238095521926880e-01 9.8992443084716797e-01</leafValues></_>
        <_>
          <internalNodes>
            0 -1 44 -109315073 52033989 -1273935743 622051457 -267199909
            -1563787198 -863897461 -67126305</internalNodes>
          <leafValues>
            -9.7122901678085327e-01 9.4562411308288574e-01</leafValues></_></weakClassifiers></_>
    <!-- stage 1 -->
    <_>
      <maxWeakCount>3</maxWeakCount>
      <stageThreshold>-9.5414733886718750e-01</stageThreshold>
      <weakClassifiers>
        <_>
          <internalNodes>
            0 -1 12 -1 -114705409 -536870917 -34953 -912523265 -6237777
            -1 -34957</internalNodes>
          <leafValues>
            -9.0447759628295898e-01 9.4472360610961914e-01</leafValues></_>
        <_>
          <internalNodes>
            0 -1 62 -35651649 -720422833 1077249921 -286895738
            -490622533 -652508151 -490014669 -286334209</internalNodes>
          <leafValues>
            -9.3621164560317993e-01 8.6225503683090210e-01</leafValues></_>
        <_>
          <internalNodes>
            0 -1 11 -539230217 -141569664 -1072627619 -182269455
            -532160513 -1387309 -510985569 -527471</internalNodes>
          <leafValues>
            -9.1160416603088379e-01 8.8654190301895142e-01</leafValues></_></weakClassifiers></_>
    <!-- stage 2 -->
    <_>
      <maxWeakCount>3</maxWeakCount>
      <stageThreshold>-9.9788749217987061e-01</stageThreshold>
      <weakClassifiers>
        <_>
          <internalNodes>
            0 -1 15 -613023745 -10489441 -787119395 -38155877 2139348891
            1398778571 -473848689 -87402</internalNodes>
          <leafValues>
            -9.3650794029235840e-01 8.8038277626037598e-01</leafValues></_>
        <_>
          <internalNodes>
            0 -1 1 1419771903 -1713677 -2078996077 -174731193
            -1060417569 -544500677 2019166607 -3278193</internalNodes>
          <leafValues>
            -8.7602072954177856e-01 8.3237171173095703e-01</leafValues></_>
        <_>
          <internalNodes>
            0 -1 42 -109576225 -754603077 -1658879185 -611214382
            -922160709 -1617847989 -671027749 -50794838</internalNodes>
          <leafValues>
            -8.8460659980773926e-01 8.1464117765426636e-01</leafValues></_></weakClassifiers></_>
    <!-- stage 3 -->
    <_>
      <maxWeakCount>3</maxWeakCount>
      <stageThreshold>-9.6821337938308716e-01</stageThreshold>
      <weakClassifiers>
        <_>
          <internalNodes>
            0 -1 19 1900500959 -752459173 -788099043 -14576765 836700559
            -133201240 1789521403 -263185</internalNodes>
          <leafValues>
            -9.3220341205596924e-01 7.9452055692672729e-01</leafValues></_>
        <_>
          <internalNodes>
            0 -1 60 -12061833 -663302089 -1642634857 -1932919585
            -1689127505 -1593573243 -940848897 -1347684353</internalNodes>
          <leafValues>
            -8.8302099704742432e-01 7.4709564447402954e-01</leafValues></_>
        <_>
          <internalNodes>
            0 -1 21 1432082431 1497702535 1694175 -183512389 1142002159
            -24145909 -612329285 -67167797</internalNodes>
          <leafValues>
            -7.8310567140579224e-01 8.7192308902740479e-01</leafValues></_></weakClassifiers></_>
    <!-- stage 4 -->
    <_>
      <maxWeakCount>3</maxWeakCount>
      <stageThreshold>-9.2700046300888062e-01</stageThreshold>
      <weakClassifiers>
        <_>
          <internalNodes>
            0 -1 3 -9 -268439553 -143 -1048585 -1935671297 -9 -15 -9</internalNodes>
          <leafValues>
            -7.9381442070007324e-01 8.7039387226104736e-01</leafValues></_>
        <_>
          <internalNodes>
            0 -1 49 -675807873 1996870403 -517528249 -738909836
            -250279295 -951585915 -1265674818 -1360003077</internalNodes>
          <leafValues>
            -8.7535512447357178e-01 7.5206398963928223e-01</leafValues></_>
        <_>
          <internalNodes>
            0 -1 41 -171921987 1931869055 -628909950 -372309366
            -213544001 568853133 -272395553 -1070392</internalNodes>
          <leafValues>
            -8.4369099140167236e-01 7.4216914176940918e-01</leafValues></_></weakClassifiers></_>
    <!-- stage 5 -->
    <_>
      <maxWeakCount>3</maxWeakCount>
      <stageThreshold>-9.7235649824142456e-01</stageThreshold>
      <weakClassifiers>
        <_>
          <internalNodes>
            0 -1 14 -682361857 -18689 637567133 -980612989 -69337089
            239972010 -1934646645 -23086093</internalNodes>
          <leafValues>
            -8.7828946113586426e-01 7.9254078865051270e-01</leafValues></_>
        <_>
          <internalNodes>
            0 -1 35 1397733675 1091817925 -314472317 965298295
            1582858419 -224215005 -347735381 -270532641</internalNodes>
          <leafValues>
            -8.3861827850341797e-01 7.6378935575485229e-01</leafValues></_>
        <_>
          <internalNodes>
            0 -1 63 -23348417 -230959521 -2039680717 -464229650
            -265186983 -80554997 -974212673 -286530193</internalNodes>
          <leafValues>
            -8.2763826847076416e-01 7.4455124139785767e-01</leafValues></_></weakClassifiers></_>
    <!-- stage 6 -->
    <_>
      <maxWeakCount>3</maxWeakCount>
      <stageThreshold>-9.1104161739349365e-01</stageThreshold>
      <weakClassifiers>
        <_>
          <internalNodes>
            0 -1 8 -238552577 -104757939 1098970655 -585766823
            -1850780225 -494878583 1873497439 -5505137</internalNodes>
          <leafValues>
            -8.5808581113815308e-01 7.7441859245300293e-01</leafValues></_>
        <_>
          <internalNodes>
            0 -1 47 1406204330 -49954149 -1308163697 -178578659
            1929749663 957218889 -89532017 -5258849</internalNodes>
          <leafValues>
            -8.7996590137481689e-01 6.8576961755752563e-01</leafValues></_>
        <_>
          <internalNodes>
            0 -1 23 1412947455 2098309068 -65537 -1064965 1551366079
            -21102833 -97 -49</internalNodes>
          <leafValues>
            -7.3872542381286621e-01 8.7387394905090332e-01</leafValues></_></weakClassifiers></_>
    <!-- stage 7 -->
    <_>
      <maxWeakCount>2</maxWeakCount>
      <stageThreshold>-1.0460438579320908e-01</stageThreshold>
      <weakClassifiers>
        <_>
          <internalNodes>
            0 -1 53 2019522559 -174072609 -765468923 -38802981
            1343951055 1905330250 2034577983 2132795392</internalNodes>
          <leafValues>
            -8.8277089595794678e-01 7.1207088232040405e-01</leafValues></_>
        <_>
          <internalNodes>
            0 -1 24 1023934463 1576129015 -786999269 -538852285 1432299
            265388982 -619738397 -20284274</internalNodes>
          <leafValues>
            -8.1667524576187134e-01 7.9795908927917480e-01</leafValues></_></weakClassifiers></_>
    <!-- stage 8 -->
    <_>
      <maxWeakCount>3</maxWeakCount>
      <stageThreshold>-8.8813316822052002e-01</stageThreshold>
      <weakClassifiers>
        <_>
          <internalNodes>
            0 -1 4 -276824065 -570425345 -785266426 -8388645 -458113029
            -384972797 -159 -170</internalNodes>
          <leafValues>
            -7.1757924556732178e-01 8.3419686555862427e-01</leafValues></_>
        <_>
          <internalNodes>
            0 -1 30 33629159 -40372643 22127894 -728004461 173942719
            -657536588 -681993522 -696594263</internalNodes>
          <leafValues>
            -9.2171144485473633e-01 6.9342035055160522e-01</leafValues></_>
        <_>
          <internalNodes>
            0 -1 7 -2114721 1087475962 -635403003 -719354866 -224012013
            -224687845 1228036900 -1053946</internalNodes>
          <leafValues>
            -7.6500999927520752e-01 7.5115752220153809e-01</leafValues></_></weakClassifiers></_>
    <!-- stage 9 -->
    <_>
      <maxWeakCount>2</maxWeakCount>
      <stageThreshold>-1.7727844417095184e-01</stageThreshold>
      <weakClassifiers>
        <_>
          <internalNodes>
            0 -1 59 -586164865 -1621264683 -1185888431 -1413753411
            -1281891891 860382372 -1262775672 -36968080</internalNodes>
          <leafValues>
            -8.1387478113174438e-01 7.1657145023345947e-01</leafValues></_>
        <_>
          <internalNodes>
            0 -1 33 1909519182 -708662961 -2010782452 -1719359039
            -472320242 -938284383 -139594833 -340821313</internalNodes>
          <leafValues>
            -8.7713462114334106e-01 6.3659632205963135e-01</leafValues></_></weakClassifiers></_>
    <!-- stage 10 -->
    <_>
      <maxWeakCount>3</maxWeakCount>
      <stageThreshold>-8.8918662071228027e-01</stageThreshold>
      <weakClassifiers>
        <_>
          <internalNodes>
            0 -1 55 -815857702 -544537910 -1840217897 -1280093566
            -1769428310 -1161396182 251710143 -1685271410</internalNodes>
          <leafValues>
            -7.8666669130325317e-01 7.1362584829330444e-01</leafValues></_>
        <_>
          <internalNodes>
            0 -1 65 -553648129 -1028329017 -1072614965 -2004466354
            -1566051877 -1431191128 -997463413 -855719186</internalNodes>
          <leafValues>
            -8.2184487581253052e-01 7.2370016574859619e-01</leafValues></_>
        <_>
          <internalNodes>
            0 -1 2 -1955668993 -649903533 51978561 -4235200 -1981906465
            -1125612865 -1417043493 -341464780</internalNodes>
          <leafValues>
            -7.7842694520950317e-01 7.1932494640350342e-01</leafValues></_></weakClassifiers></_>
    <!-- stage 11 -->
    <_>
      <maxWeakCount>3</maxWeakCount>
      <stageThreshold>-8.8986325263977051e-01</stageThreshold>
      <weakClassifiers>
        <_>
          <internalNodes>
            0 -1 43 1765925375 1333987583 60850947 -541539432
            -2130597425 -347142775 -78996825 465108959</internalNodes>
          <leafValues>
            -9.4810378551483154e-01 6.4352333545684814e-01</leafValues></_>
        <_>
          <internalNodes>
            0 -1 25 -33554433 -133129 -655361 -268435459 -134807873
            -131329 -402653185 -168427521</internalNodes>
          <leafValues>
            -7.1815651655197144e-01 8.3388352394104004e-01</leafValues></_>
        <_>
          <internalNodes>
            0 -1 22 1979667951 1467173155 130153975 -70811424 558535679
            1342185611 -352256101 -575958641</internalNodes>
          <leafValues>
            -7.1598106622695923e-01 7.7639698982238770e-01</leafValues></_></weakClassifiers></_>
    <!-- stage 12 -->
    <_>
      <maxWeakCount>5</maxWeakCount>
      <stageThreshold>-1.0256429910659790e+00</stageThreshold>
      <weakClassifiers>
        <_>
          <internalNodes>
            0 -1 9 -137364609 -1058217013 -1073646803 -788365312
            -263629479 -913155808 1052138057 -272708904</internalNodes>
          <leafValues>
            -8.0821919441223145e-01 7.0068025588989258e-01</leafValues></_>
        <_>
          <internalNodes>
            0 -1 51 -654053246 -1339953143 34 621273737 1342669392
            59310082 1695275714 -792629</internalNodes>
          <leafValues>
            -7.7046161890029907e-01 7.0077574253082275e-01</leafValues></_>
        <_>
          <internalNodes>
            0 -1 45 -34284049 -205290995 -2123853605 -303226599
            -1814574597 -54984448 176492547 2125404315</internalNodes>
          <leafValues>
            -8.2515484094619751e-01 6.5344643592834473e-01</leafValues></_>
        <_>
          <internalNodes>
            0 -1 31 -22020265 -109084811 -16812167 2145320702 -402785041
            -4097 -65554 -285290754</internalNodes>
          <leafValues>
            -6.9243377447128296e-01 8.1495726108551025e-01</leafValues></_>
        <_>
          <internalNodes>
            0 -1 34 -142215160 -1718566784 -1946153978 -658389085
            -665402213 2072027136 -131424077 1917575114</internalNodes>
          <leafValues>
            -9.0800189971923828e-01 6.5183293819427490e-01</leafValues></_></weakClassifiers></_>
    <!-- stage 13 -->
    <_>
      <maxWeakCount>3</maxWeakCount>
      <stageThreshold>-9.2448347806930542e-01</stageThreshold>
      <weakClassifiers>
        <_>
          <internalNodes>
            0 -1 50 2599919 923738095 353009853 -842798323 -2070945375
            -829915000 -894336859 -537925246</internalNodes>
          <leafValues>
            -8.3303731679916382e-01 6.8106311559677124e-01</leafValues></_>
        <_>
          <internalNodes>
            0 -1 32 -2097025593 -1047977509 -1937538697 -132836199
            572770187 -1163179297 -1280995410 -87335937</internalNodes>
          <leafValues>
            -7.6945239305496216e-01 6.6950452327728271e-01</leafValues></_>
        <_>
          <internalNodes>
            0 -1 17 -1445519873 -576813405 -402422497 1568115221
            1753255599 -929324821 -1742024209 -80223563</internalNodes>
          <leafValues>
            -7.6095068454742432e-01 7.5500082969665527e-01</leafValues></_></weakClassifiers></_>
    <!-- stage 14 -->
    <_>
      <maxWeakCount>3</maxWeakCount>
      <stageThreshold>-8.7976473569869995e-01</stageThreshold>
      <weakClassifiers>
        <_>
          <internalNodes>
            0 -1 18 -4615969 -2622131 79831763 -629054464 -318706230
            504225499 747803319 -5387951</internalNodes>
          <leafValues>
            -8.8715952634811401e-01 6.3235294818878174e-01</leafValues></_>
        <_>
          <internalNodes>
            0 -1 48 -640824323 -36867 -549469044 -33685569 -91905
            536820727 -1220633139 -268436481</internalNodes>
          <leafValues>
            -7.0950710773468018e-01 7.8988516330718994e-01</leafValues></_>
        <_>
          <internalNodes>
            0 -1 29 2111790587 -181191948 352666381 837002378 837077945
            -1146472764 798133761 -1412461691</internalNodes>
          <leafValues>
            -7.5360065698623657e-01 7.1690189838409424e-01</leafValues></_></weakClassifiers></_>
    <!-- stage 15 -->
    <_>
      <maxWeakCount>4</maxWeakCount>
      <stageThreshold>-3.3311834931373596e-01</stageThreshold>
      <weakClassifiers>
        <_>
          <internalNodes>
            0 -1 28 -1652225729 -683201749 51448761 -586870007 788570399
            -586837729 -1953518389 -1800433777</internalNodes>
          <leafValues>
            -8.0434781312942505e-01 6.4551424980163574e-01</leafValues></_>
        <_>
          <internalNodes>
            0 -1 38 -16465987 1225000091 -263613617 1974993322
            -411005025 -575623235 -104289762 -383110334</internalNodes>
          <leafValues>
            -7.2192329168319702e-01 6.9828712940216064e-01</leafValues></_>
        <_>
          <internalNodes>
            0 -1 26 1864300543 290916619 -1014396929 -74585205
            1250921391 -36101120 -991061841 -360085239</internalNodes>
          <leafValues>
            -7.4654144048690796e-01 6.8629997968673706e-01</leafValues></_>
        <_>
          <internalNodes>
            0 -1 54 -78119181 -787536851 268501207 1942976541 1101636034
            8593536 1258985931 870294415</internalNodes>
          <leafValues>
            -9.1335761547088623e-01 5.9002923965454102e-01</leafValues></_></weakClassifiers></_>
    <!-- stage 16 -->
    <_>
      <maxWeakCount>4</maxWeakCount>
      <stageThreshold>-1.5482895076274872e-01</stageThreshold>
      <weakClassifiers>
        <_>
          <internalNodes>
            0 -1 20 2086494077 1598202127 931307913 2106976289 870325711
            -301006173 1428269070 -1094731382</internalNodes>
          <leafValues>
            -7.6333332061767578e-01 6.9745957851409912e-01</leafValues></_>
        <_>
          <internalNodes>
            0 -1 6 -648285357 -200153973 1883312419 -68484146 -179578409
            -422739765 -241495215 -273956250</internalNodes>
          <leafValues>
            -7.1804624795913696e-01 7.2103852033615112e-01</leafValues></_>
        <_>
          <internalNodes>
            0 -1 40 1091319237 -770322987 -823959181 -146564733
            973715351 -56472878 -326852694 -4375905</internalNodes>
          <leafValues>
            -7.8446114063262939e-01 6.8877893686294556e-01</leafValues></_>
        <_>
          <internalNodes>
            0 -1 57 -243408392 319228040 1145602200 1968373963
            -111087446 -1216347136 -364651033 -354426150</internalNodes>
          <leafValues>
            -7.8332877159118652e-01 6.7192697525024414e-01</leafValues></_></weakClassifiers></_>
    <!-- stage 17 -->
    <_>
      <maxWeakCount>5</maxWeakCount>
      <stageThreshold>-9.1241300106048584e-01</stageThreshold>
      <weakClassifiers>
        <_>
          <internalNodes>
            0 -1 37 -721058 -87612797 335545731 -175560405 -1703040515
            -188324246 227646081 768395136</internalNodes>
          <leafValues>
            -8.1085813045501709e-01 6.8044692277908325e-01</leafValues></_>
        <_>
          <internalNodes>
            0 -1 64 -162871457 -1024863945 1376452701 -2091317951
            -795745530 -1602019299 -265233761 -1431375681</internalNodes>
          <leafValues>
            -8.2594156265258789e-01 6.7345136404037476e-01</leafValues></_>
        <_>
          <internalNodes>
            0 -1 52 -803305637 -1022525414 4194397 1910460433 -642944945
            -1682290423 -771665825 -81833857</internalNodes>
          <leafValues>
            -7.5319540500640869e-01 7.2398513555526733e-01</leafValues></_>
        <_>
          <internalNodes>
            0 -1 5 -795123745 1444658271 823399319 -686287475 34673287
            17375240 -536239127 -696075575</internalNodes>
          <leafValues>
            -7.5601506233215332e-01 7.3796570301055908e-01</leafValues></_>
        <_>
          <internalNodes>
            0 -1 0 -872032797 1430754445 42287164 1730019392 231851
            1284538884 -1550999395 -85080064</internalNodes>
          <leafValues>
            -7.3377829790115356e-01 7.4229210615158081e-01</leafValues></_></weakClassifiers></_>
    <!-- stage 18 -->
    <_>
      <maxWeakCount>4</maxWeakCount>
      <stageThreshold>-1.6188646554946899e+00</stageThreshold>
      <weakClassifiers>
        <_>
          <internalNodes>
            0 -1 56 -263460214 -800874493 -1004814185 1493709594
            -2109374309 151126224 -1333689698 458203855</internalNodes>
          <leafValues>
            -8.5468453168869019e-01 6.2884414196014404e-01</leafValues></_>
        <_>
          <internalNodes>
            0 -1 13 1346851263 -1860632113 1208009137 -1987997527
            -779577161 -1987671878 1036306529 -286275402</internalNodes>
          <leafValues>
            -8.3085078001022339e-01 6.2749952077865601e-01</leafValues></_>
        <_>
          <internalNodes>
            0 -1 61 -673973542 -541337378 1856704255 1338998511
            715367678 2118086398 544722159 -813699345</internalNodes>
          <leafValues>
            -6.9748055934906006e-01 7.5394594669342041e-01</leafValues></_>
        <_>
          <internalNodes>
            0 -1 46 1087337359 989724668 -4 -524304 -201345537
            -1073741826 -1 -1107296783</internalNodes>
          <leafValues>
            -7.1937739849090576e-01 7.6531457901000977e-01</leafValues></_></weakClassifiers></_>
    <!-- stage 19 -->
    <_>
      <maxWeakCount>5</maxWeakCount>
      <stageThreshold>-1.0691910982131958e+00</stageThreshold>
      <weakClassifiers>
        <_>
          <internalNodes>
            0 -1 27 -524026025 -1056769021 196162 -1073686397 236399
            -728760318 407587019 -641580205</internalNodes>
          <leafValues>
            -8.4501844644546509e-01 6.5367966890335083e-01</leafValues></_>
        <_>
          <internalNodes>
            0 -1 58 -720062552 -587144823 -2028633950 -238167472
            -1534750134 -1977048944 -2003466070 1934621087</internalNodes>
          <leafValues>
            -8.7948071956634521e-01 6.1064761877059937e-01</leafValues></_>
        <_>
          <internalNodes>
            0 -1 36 46837511 1103224839 275 -2142698934 1633930415
            72387362 1679593611 -372582007</internalNodes>
          <leafValues>
            -8.1946486234664917e-01 6.2874025106430054e-01</leafValues></_>
        <_>
          <internalNodes>
            0 -1 10 -587045513 -784334839 -1593818864 -259981035
            1351173701 1386422280 673147666 -269753598</internalNodes>
          <leafValues>
            -8.0294966697692871e-01 7.3055827617645264e-01</leafValues></_>
        <_>
          <internalNodes>
            0 -1 39 2136961951 -8441046 1564423863 -1351733490
            -1216465409 -526337 394207227 -34114856</internalNodes>
          <leafValues>
            -7.5448352098464966e-01 7.8256243467330933e-01</leafValues></_></weakClassifiers></_></stages>
  <features>
    <_>
      <rect>
        0 1 10 3</rect></_>
    <_>
      <rect>
        0 12 10 10</rect></_>
    <_>
      <rect>
        1 1 10 4</rect></_>
    <_>
      <rect>
        2 7 8 6</rect></_>
    <_>
      <rect>
        2 14 5 5</rect></_>
    <_>
      <rect>
        2 32 14 3</rect></_>
    <_>
      <rect>
        3 17 3 4</rect></_>
    <_>
      <rect>
        3 19 3 4</rect></_>
    <_>
      <rect>
        4 12 7 9</rect></_>
    <_>
      <rect>
        4 18 6 7</rect></_>
    <_>
      <rect>
        4 23 3 3</rect></_>
    <_>
      <rect>
        5 2 8 7</rect></_>
    <_>
      <rect>
        5 2 8 11</rect></_>
    <_>
      <rect>
        5 12 5 3</rect></_>
    <_>
      <rect>
        5 14 12 10</rect></_>
    <_>
      <rect>
        5 15 13 7</rect></_>
    <_>
      <rect>
        6 15 12 8</rect></_>
    <_>
      <rect>
        8 2 7 4</rect></_>
    <_>
      <rect>
        9 14 11 8</rect></_>
    <_>
      <rect>
        9 17 7 8</rect></_>
    <_>
      <rect>
        9 23 8 4</rect></_>
    <_>
      <rect>
        9 29 10 4</rect></_>
    <_>
      <rect>
        9 32 10 3</rect></_>
    <_>
      <rect>
        10 29 10 4</rect></_>
    <_>
      <rect>
        10 30 9 3</rect></_>
    <_>
      <rect>
        11 1 8 4</rect></_>
    <_>
      <rect>
        11 30 9 3</rect></_>
    <_>
      <rect>
        12 9 5 10</rect></_>
    <_>
      <rect>
        13 8 8 3</rect></_>
    <_>
      <rect>
        13 18 6 4</rect></_>
    <_>
      <rect>
        14 14 5 7</rect></_>
    <_>
      <rect>
        15 1 11 3</rect></_>
    <_>
      <rect>
        15 14 4 5</rect></_>
    <_>
      <rect>
        15 16 3 4</rect></_>
    <_>
      <rect>
        15 20 3 4</rect></_>
    <_>
      <rect>
        16 13 3 7</rect></_>
    <_>
      <rect>
        16 15 3 6</rect></_>
    <_>
      <rect>
        16 18 5 5</rect></_>
    <_>
      <rect>
        16 21 4 4</rect></_>
    <_>
      <rect>
        16 27 4 2</rect></_>
    <_>
      <rect>
        17 15 3 4</rect></_>
    <_>
      <rect>
        17 21 4 4</rect></_>
    <_>
      <rect>
        18 3 6 5</rect></_>
    <_>
      <rect>
        18 10 5 4</rect></_>
    <_>
      <rect>
        18 13 8 9</rect></_>
    <_>
      <rect>
        18 18 4 5</rect></_>
    <_>
      <rect>
        19 13 3 4</rect></_>
    <_>
      <rect>
        19 23 3 2</rect></_>
    <_>
      <rect>
        19 24 3 2</rect></_>
    <_>
      <rect>
        21 3 6 10</rect></_>
    <_>
      <rect>
        21 15 3 7</rect></_>
    <_>
      <rect>
        21 19 1 5</rect></_>
    <_>
      <rect>
        21 20 2 2</rect></_>
    <_>
      <rect>
        21 21 2 2</rect></_>
    <_>
      <rect>
        22 20 1 2</rect></_>
    <_>
      <rect>
        22 21 2 1</rect></_>
    <_>
      <rect>
        23 17 1 5</rect></_>
    <_>
      <rect>
        23 21 1 1</rect></_>
    <_>
      <rect>
        23 21 2 3</rect></_>
    <_>
      <rect>
        25 13 6 9</rect></_>
    <_>
      <rect>
        27 17 5 5</rect></_>
    <_>
      <rect>
        27 19 1 4</rect></_>
    <_>
      <rect>
        28 6 4 8</rect></_>
    <_>
      <rect>
        30 14 5 5</rect></_>
    <_>
      <rect>
        34 11 3 9</rect></_>
    <_>
      <rect>
        35 18 3 3</rect></_></features></cascade>
</opencv_storage>
