<?xml version="1.0"?>
<opencv_storage>
<cascade>
  <stageType>BOOST</stageType>
  <featureType>HAAR</featureType>
  <height>48</height>
  <width>48</width>
  <stageParams>
    <boostType>GAB</boostType>
    <minHitRate>9.9500000476837158e-01</minHitRate>
    <maxFalseAlarm>5.0000000000000000e-01</maxFalseAlarm>
    <weightTrimRate>9.4999999999999996e-01</weightTrimRate>
    <maxDepth>1</maxDepth>
    <maxWeakCount>100</maxWeakCount></stageParams>
  <featureParams>
    <maxCatCount>0</maxCatCount>
    <featSize>1</featSize>
    <mode>BASIC</mode></featureParams>
  <stageNum>9</stageNum>
  <stages>
    <!-- stage 0 -->
    <_>
      <maxWeakCount>3</maxWeakCount>
      <stageThreshold>-1.1475341320037842e+00</stageThreshold>
      <weakClassifiers>
        <_>
          <internalNodes>
            0 -1 5 -6.0176536440849304e-02</internalNodes>
          <leafValues>
            9.0693259239196777e-01 -9.0046656131744385e-01</leafValues></_>
        <_>
          <internalNodes>
            0 -1 24 -3.1143914908170700e-02</internalNodes>
          <leafValues>
            7.7720469236373901e-01 -7.9072809219360352e-01</leafValues></_>
        <_>
          <internalNodes>
            0 -1 14 4.2459117248654366e-03</internalNodes>
          <leafValues>
            -9.5721453428268433e-01 5.4366046190261841e-01</leafValues></_></weakClassifiers></_>
    <!-- stage 1 -->
    <_>
      <maxWeakCount>2</maxWeakCount>
      <stageThreshold>-1.8005400896072388e-01</stageThreshold>
      <weakClassifiers>
        <_>
          <internalNodes>
            0 -1 1 -1.7235270142555237e-01</internalNodes>
          <leafValues>
            9.0725809335708618e-01 -7.4431818723678589e-01</leafValues></_>
        <_>
          <internalNodes>
            0 -1 28 -2.0659402944147587e-03</internalNodes>
          <leafValues>
            5.6426417827606201e-01 -9.6099674701690674e-01</leafValues></_></weakClassifiers></_>
    <!-- stage 2 -->
    <_>
      <maxWeakCount>4</maxWeakCount>
      <stageThreshold>-5.6321257352828979e-01</stageThreshold>
      <weakClassifiers>
        <_>
          <internalNodes>
            0 -1 2 -1.3807088136672974e-01</internalNodes>
          <leafValues>
            8.4815186262130737e-01 -6.8057554960250854e-01</leafValues></_>
        <_>
          <internalNodes>
            0 -1 11 -2.1882009506225586e-01</internalNodes>
          <leafValues>
            7.1994608640670776e-01 -6.5397816896438599e-01</leafValues></_>
        <_>
          <internalNodes>
            0 -1 19 -5.3605111315846443e-03</internalNodes>
          <leafValues>
            4.0939232707023621e-01 -9.5250475406646729e-01</leafValues></_>
        <_>
          <internalNodes>
            0 -1 29 -3.9796839701011777e-04</internalNodes>
          <leafValues>
            -9.7279208898544312e-01 3.6194884777069092e-01</leafValues></_></weakClassifiers></_>
    <!-- stage 3 -->
    <_>
      <maxWeakCount>2</maxWeakCount>
      <stageThreshold>-5.8888830244541168e-02</stageThreshold>
      <weakClassifiers>
        <_>
          <internalNodes>
            0 -1 0 -2.8573274612426758e-01</internalNodes>
          <leafValues>
            8.7904965877532959e-01 -5.6883114576339722e-01</leafValues></_>
        <_>
          <internalNodes>
            0 -1 30 -5.9297692496329546e-04</internalNodes>
          <leafValues>
            5.0994235277175903e-01 -9.3390208482742310e-01</leafValues></_></weakClassifiers></_>
    <!-- stage 4 -->
    <_>
      <maxWeakCount>4</maxWeakCount>
      <stageThreshold>-6.7935025691986084e-01</stageThreshold>
      <weakClassifiers>
        <_>
          <internalNodes>
            0 -1 3 -5.6766732595860958e-03</internalNodes>
          <leafValues>
            6.4806866645812988e-01 -7.1374762058258057e-01</leafValues></_>
        <_>
          <internalNodes>
            0 -1 21 -2.1590098738670349e-02</internalNodes>
          <leafValues>
            6.2809157371520996e-01 -6.1792200803756714e-01</leafValues></_>
        <_>
          <internalNodes>
            0 -1 13 -1.2302443792577833e-04</internalNodes>
          <leafValues>
            3.5737743973731995e-01 -9.5188087224960327e-01</leafValues></_>
        <_>
          <internalNodes>
            0 -1 16 -1.0626203584251925e-04</internalNodes>
          <leafValues>
            -9.9653893709182739e-01 2.9494196176528931e-01</leafValues></_></weakClassifiers></_>
    <!-- stage 5 -->
    <_>
      <maxWeakCount>5</maxWeakCount>
      <stageThreshold>-1.3145908117294312e+00</stageThreshold>
      <weakClassifiers>
        <_>
          <internalNodes>
            0 -1 10 -1.7730879783630371e-01</internalNodes>
          <leafValues>
            7.7488374710083008e-01 -7.3590981960296631e-01</leafValues></_>
        <_>
          <internalNodes>
            0 -1 8 3.4818022977560759e-03</internalNodes>
          <leafValues>
            -6.4883667230606079e-01 5.7278281450271606e-01</leafValues></_>
        <_>
          <internalNodes>
            0 -1 15 -1.7877124482765794e-03</internalNodes>
          <leafValues>
            -9.9098575115203857e-01 3.3922171592712402e-01</leafValues></_>
        <_>
          <internalNodes>
            0 -1 33 -7.4031755328178406e-02</internalNodes>
          <leafValues>
            6.2173074483871460e-01 -5.7074099779129028e-01</leafValues></_>
        <_>
          <internalNodes>
            0 -1 17 -2.4870857596397400e-03</internalNodes>
          <leafValues>
            -9.7919028997421265e-01 3.0167499184608459e-01</leafValues></_></weakClassifiers></_>
    <!-- stage 6 -->
    <_>
      <maxWeakCount>3</maxWeakCount>
      <stageThreshold>8.6824275553226471e-02</stageThreshold>
      <weakClassifiers>
        <_>
          <internalNodes>
            0 -1 6 -1.6762936115264893e-01</internalNodes>
          <leafValues>
            7.7309238910675049e-01 -5.6285715103149414e-01</leafValues></_>
        <_>
          <internalNodes>
            0 -1 18 3.9621395990252495e-03</internalNodes>
          <leafValues>
            4.4242528080940247e-01 -9.4459533691406250e-01</leafValues></_>
        <_>
          <internalNodes>
            0 -1 23 -1.9474634900689125e-03</internalNodes>
          <leafValues>
            -9.5943772792816162e-01 2.5832724571228027e-01</leafValues></_></weakClassifiers></_>
    <!-- stage 7 -->
    <_>
      <maxWeakCount>6</maxWeakCount>
      <stageThreshold>-1.0275280475616455e+00</stageThreshold>
      <weakClassifiers>
        <_>
          <internalNodes>
            0 -1 32 -1.3407450169324875e-03</internalNodes>
          <leafValues>
            5.8366066217422485e-01 -8.6761230230331421e-01</leafValues></_>
        <_>
          <internalNodes>
            0 -1 7 1.6399934887886047e-02</internalNodes>
          <leafValues>
            -5.6142491102218628e-01 6.6390508413314819e-01</leafValues></_>
        <_>
          <internalNodes>
            0 -1 31 -4.0144841477740556e-06</internalNodes>
          <leafValues>
            3.8278597593307495e-01 -7.8674685955047607e-01</leafValues></_>
        <_>
          <internalNodes>
            0 -1 27 1.0101031512022018e-03</internalNodes>
          <leafValues>
            -8.1227773427963257e-01 3.2953381538391113e-01</leafValues></_>
        <_>
          <internalNodes>
            0 -1 4 -4.1669346392154694e-03</internalNodes>
          <leafValues>
            4.7223642468452454e-01 -5.9078478813171387e-01</leafValues></_>
        <_>
          <internalNodes>
            0 -1 20 2.2641723044216633e-03</internalNodes>
          <leafValues>
            2.7997422218322754e-01 -9.8825192451477051e-01</leafValues></_></weakClassifiers></_>
    <!-- stage 8 -->
    <_>
      <maxWeakCount>5</maxWeakCount>
      <stageThreshold>-1.3782687187194824e+00</stageThreshold>
      <weakClassifiers>
        <_>
          <internalNodes>
            0 -1 12 -1.1616095900535583e-02</internalNodes>
          <leafValues>
            6.4310956001281738e-01 -6.2411350011825562e-01</leafValues></_>
        <_>
          <internalNodes>
            0 -1 25 -1.8114160746335983e-02</internalNodes>
          <leafValues>
            5.7526147365570068e-01 -5.0232827663421631e-01</leafValues></_>
        <_>
          <internalNodes>
            0 -1 9 9.1489665210247040e-03</internalNodes>
          <leafValues>
            3.2557705044746399e-01 -8.7613028287887573e-01</leafValues></_>
        <_>
          <internalNodes>
            0 -1 22 3.7446243368322030e-05</internalNodes>
          <leafValues>
            -9.5097130537033081e-01 2.8191375732421875e-01</leafValues></_>
        <_>
          <internalNodes>
            0 -1 26 2.7971016243100166e-03</internalNodes>
          <leafValues>
            1.6979217529296875e-01 -9.2483341693878174e-01</leafValues></_></weakClassifiers></_></stages>
  <features>
    <_>
      <rects>
        <_>
          0 6 48 32 -1.</_>
        <_>
          16 6 16 32 3.</_></rects>
      <tilted>0</tilted></_>
    <_>
      <rects>
        <_>
          2 5 42 33 -1.</_>
        <_>
          16 5 14 33 3.</_></rects>
      <tilted>0</tilted></_>
    <_>
      <rects>
        <_>
          3 4 36 34 -1.</_>
        <_>
          15 4 12 34 3.</_></rects>
      <tilted>0</tilted></_>
    <_>
      <rects>
        <_>
          3 21 21 9 -1.</_>
        <_>
          10 21 7 9 3.</_></rects>
      <tilted>0</tilted></_>
    <_>
      <rects>
        <_>
          4 17 21 3 -1.</_>
        <_>
          11 17 7 3 3.</_></rects>
      <tilted>0</tilted></_>
    <_>
      <rects>
        <_>
          5 11 39 20 -1.</_>
        <_>
          18 11 13 20 3.</_></rects>
      <tilted>0</tilted></_>
    <_>
      <rects>
        <_>
          8 4 39 38 -1.</_>
        <_>
          21 4 13 38 3.</_></rects>
      <tilted>0</tilted></_>
    <_>
      <rects>
        <_>
          8 6 14 22 -1.</_>
        <_>
          8 6 7 11 2.</_>
        <_>
          15 17 7 11 2.</_></rects>
      <tilted>0</tilted></_>
    <_>
      <rects>
        <_>
          8 13 16 10 -1.</_>
        <_>
          8 13 8 5 2.</_>
        <_>
          16 18 8 5 2.</_></rects>
      <tilted>0</tilted></_>
    <_>
      <rects>
        <_>
          9 14 30 16 -1.</_>
        <_>
          9 22 30 8 2.</_></rects>
      <tilted>0</tilted></_>
    <_>
      <rects>
        <_>
          10 0 27 39 -1.</_>
        <_>
          10 13 27 13 3.</_></rects>
      <tilted>0</tilted></_>
    <_>
      <rects>
        <_>
          10 0 28 48 -1.</_>
        <_>
          10 16 28 16 3.</_></rects>
      <tilted>0</tilted></_>
    <_>
      <rects>
        <_>
          10 6 18 14 -1.</_>
        <_>
          16 6 6 14 3.</_></rects>
      <tilted>0</tilted></_>
    <_>
      <rects>
        <_>
          10 16 22 14 -1.</_>
        <_>
          21 16 11 14 2.</_></rects>
      <tilted>0</tilted></_>
    <_>
      <rects>
        <_>
          12 16 30 9 -1.</_>
        <_>
          27 16 15 9 2.</_></rects>
      <tilted>0</tilted></_>
    <_>
      <rects>
        <_>
          14 15 18 14 -1.</_>
        <_>
          14 22 18 7 2.</_></rects>
      <tilted>0</tilted></_>
    <_>
      <rects>
        <_>
          14 20 24 5 -1.</_>
        <_>
          26 20 12 5 2.</_></rects>
      <tilted>0</tilted></_>
    <_>
      <rects>
        <_>
          14 22 20 7 -1.</_>
        <_>
          24 22 10 7 2.</_></rects>
      <tilted>0</tilted></_>
    <_>
      <rects>
        <_>
          16 20 18 9 -1.</_>
        <_>
          25 20 9 9 2.</_></rects>
      <tilted>0</tilted></_>
    <_>
      <rects>
        <_>
          17 6 14 18 -1.</_>
        <_>
          17 12 14 6 3.</_></rects>
      <tilted>0</tilted></_>
    <_>
      <rects>
        <_>
          17 14 12 14 -1.</_>
        <_>
          23 14 6 14 2.</_></rects>
      <tilted>0</tilted></_>
    <_>
      <rects>
        <_>
          18 0 13 10 -1.</_>
        <_>
          18 5 13 5 2.</_></rects>
      <tilted>0</tilted></_>
    <_>
      <rects>
        <_>
          18 14 10 16 -1.</_>
        <_>
          18 22 10 8 2.</_></rects>
      <tilted>0</tilted></_>
    <_>
      <rects>
        <_>
          18 23 16 9 -1.</_>
        <_>
          26 23 8 9 2.</_></rects>
      <tilted>0</tilted></_>
    <_>
      <rects>
        <_>
          19 0 16 18 -1.</_>
        <_>
          19 9 16 9 2.</_></rects>
      <tilted>0</tilted></_>
    <_>
      <rects>
        <_>
          20 0 9 10 -1.</_>
        <_>
          20 5 9 5 2.</_></rects>
      <tilted>0</tilted></_>
    <_>
      <rects>
        <_>
          20 14 7 24 -1.</_>
        <_>
          20 22 7 8 3.</_></rects>
      <tilted>0</tilted></_>
    <_>
      <rects>
        <_>
          20 31 7 8 -1.</_>
        <_>
          20 35 7 4 2.</_></rects>
      <tilted>0</tilted></_>
    <_>
      <rects>
        <_>
          21 18 21 11 -1.</_>
        <_>
          28 18 7 11 3.</_></rects>
      <tilted>0</tilted></_>
    <_>
      <rects>
        <_>
          21 22 14 6 -1.</_>
        <_>
          28 22 7 6 2.</_></rects>
      <tilted>0</tilted></_>
    <_>
      <rects>
        <_>
          22 13 14 16 -1.</_>
        <_>
          22 13 7 8 2.</_>
        <_>
          29 21 7 8 2.</_></rects>
      <tilted>0</tilted></_>
    <_>
      <rects>
        <_>
          23 21 3 6 -1.</_>
        <_>
          23 23 3 2 3.</_></rects>
      <tilted>0</tilted></_>
    <_>
      <rects>
        <_>
          25 19 18 13 -1.</_>
        <_>
          31 19 6 13 3.</_></rects>
      <tilted>0</tilted></_>
    <_>
      <rects>
        <_>
          32 0 8 48 -1.</_>
        <_>
          32 16 8 16 3.</_></rects>
      <tilted>0</tilted></_></features></cascade>
</opencv_storage>
