<?xml version="1.0"?>
<opencv_storage>
<cascade>
  <stageType>BOOST</stageType>
  <featureType>LBP</featureType>
  <height>48</height>
  <width>48</width>
  <stageParams>
    <boostType>GAB</boostType>
    <minHitRate>9.9900001287460327e-01</minHitRate>
    <maxFalseAlarm>5.0000000000000000e-01</maxFalseAlarm>
    <weightTrimRate>9.4999999999999996e-01</weightTrimRate>
    <maxDepth>1</maxDepth>
    <maxWeakCount>100</maxWeakCount></stageParams>
  <featureParams>
    <maxCatCount>256</maxCatCount>
    <featSize>1</featSize></featureParams>
  <stageNum>20</stageNum>
  <stages>
    <!-- stage 0 -->
    <_>
      <maxWeakCount>2</maxWeakCount>
      <stageThreshold>2.6612399145960808e-02</stageThreshold>
      <weakClassifiers>
        <_>
          <internalNodes>
            0 -1 13 -1 1608286207 -1 -1 -5374977 289800191 -1 -1</internalNodes>
          <leafValues>
            -9.2857140302658081e-01 9.7656250000000000e-01</leafValues></_>
        <_>
          <internalNodes>
            0 -1 7 -35719297 -643981113 -1056927665 -241838076
            1619708907 134545736 -330307445 -2104353</internalNodes>
          <leafValues>
            -9.2440396547317505e-01 9.5518380403518677e-01</leafValues></_></weakClassifiers></_>
    <!-- stage 1 -->
    <_>
      <maxWeakCount>3</maxWeakCount>
      <stageThreshold>-9.2289441823959351e-01</stageThreshold>
      <weakClassifiers>
        <_>
          <internalNodes>
            0 -1 47 -136314945 -679484941 1157687751 -650129135
            -872316801 -737816499 -1464106865 -1427120177</internalNodes>
          <leafValues>
            -9.0712076425552368e-01 9.1619050502777100e-01</leafValues></_>
        <_>
          <internalNodes>
            0 -1 3 -38029377 -83155513 1124715923 -145638329 -938370819
            -1249867675 -830217377 -51609</internalNodes>
          <leafValues>
            -8.7205827236175537e-01 9.0447551012039185e-01</leafValues></_>
        <_>
          <internalNodes>
            0 -1 1 -1025 -70319641 4198375 -275137755 -211353297
            -712442903 1009598495 -531429</internalNodes>
          <leafValues>
            -8.8639754056930542e-01 8.5628461837768555e-01</leafValues></_></weakClassifiers></_>
    <!-- stage 2 -->
    <_>
      <maxWeakCount>3</maxWeakCount>
      <stageThreshold>-1.0308724641799927e+00</stageThreshold>
      <weakClassifiers>
        <_>
          <internalNodes>
            0 -1 49 -178782209 152303611 -1960767469 788789763
            -896433649 -60653295 -895882872 -7425</internalNodes>
          <leafValues>
            -9.3236714601516724e-01 8.8837206363677979e-01</leafValues></_>
        <_>
          <internalNodes>
            0 -1 15 -684730889 -1654681584 -704215785 -104025675
            -359301013 -377402750 -863198475 -19983</internalNodes>
          <leafValues>
            -8.8710421323776245e-01 8.5249274969100952e-01</leafValues></_>
        <_>
          <internalNodes>
            0 -1 16 1602223103 1609030671 -1648827967 -277108049
            -9053346 470314438 -1964399880 -18940521</internalNodes>
          <leafValues>
            -9.1792631149291992e-01 7.8859895467758179e-01</leafValues></_></weakClassifiers></_>
    <!-- stage 3 -->
    <_>
      <maxWeakCount>3</maxWeakCount>
      <stageThreshold>-9.5870387554168701e-01</stageThreshold>
      <weakClassifiers>
        <_>
          <internalNodes>
            0 -1 59 -646710273 -780444777 1380987415 -1059415521
            -804995365 -778919749 -1437031777 -287382277</internalNodes>
          <leafValues>
            -9.1721856594085693e-01 8.5164833068847656e-01</leafValues></_>
        <_>
          <internalNodes>
            0 -1 11 -78643713 -698666041 -1341723949 -136728217
            1491075231 -103562623 1875550207 -2116685</internalNodes>
          <leafValues>
            -8.9877712726593018e-01 8.1897139549255371e-01</leafValues></_>
        <_>
          <internalNodes>
            0 -1 19 528847871 1964053303 1702433023 -3148403 19936767
            1833517963 -284259637 -1348360001</internalNodes>
          <leafValues>
            -8.0614233016967773e-01 8.5729181766510010e-01</leafValues></_></weakClassifiers></_>
    <!-- stage 4 -->
    <_>
      <maxWeakCount>2</maxWeakCount>
      <stageThreshold>-1.0238405317068100e-01</stageThreshold>
      <weakClassifiers>
        <_>
          <internalNodes>
            0 -1 9 -55708193 -1014642765 961143039 -169101117 1268426735
            -342316039 -105135377 -18351375</internalNodes>
          <leafValues>
            -8.5478550195693970e-01 8.2018351554870605e-01</leafValues></_>
        <_>
          <internalNodes>
            0 -1 34 1465884675 1264568384 10503 -1014281120 1556938783
            -1841034750 1269732235 -10833</internalNodes>
          <leafValues>
            -9.0080088376998901e-01 7.5240141153335571e-01</leafValues></_></weakClassifiers></_>
    <!-- stage 5 -->
    <_>
      <maxWeakCount>3</maxWeakCount>
      <stageThreshold>-1.0009868144989014e+00</stageThreshold>
      <weakClassifiers>
        <_>
          <internalNodes>
            0 -1 60 -719340545 -241864503 -1140734713 -129396441
            -884291041 -1447693438 -1731014517 -352912725</internalNodes>
          <leafValues>
            -8.7307029962539673e-01 7.9514825344085693e-01</leafValues></_>
        <_>
          <internalNodes>
            0 -1 0 -116263433 -655785474 -600831371 -53641008
            -1048526881 -796219206 -1467155231 -71316493</internalNodes>
          <leafValues>
            -8.6295187473297119e-01 7.4601155519485474e-01</leafValues></_>
        <_>
          <internalNodes>
            0 -1 23 487423935 319676789 1505350655 -12723162 354248655
            2070643365 -358895633 -336594034</internalNodes>
          <leafValues>
            -8.5228192806243896e-01 7.3503530025482178e-01</leafValues></_></weakClassifiers></_>
    <!-- stage 6 -->
    <_>
      <maxWeakCount>3</maxWeakCount>
      <stageThreshold>-9.2888259887695312e-01</stageThreshold>
      <weakClassifiers>
        <_>
          <internalNodes>
            0 -1 25 828375007 353424799 -1868231298 -1221609661
            -862732041 -1145110565 -922567188 -287333393</internalNodes>
          <leafValues>
            -8.5666668415069580e-01 8.1204378604888916e-01</leafValues></_>
        <_>
          <internalNodes>
            0 -1 4 -268452025 -1073762341 -32956 -16530 -268468225 -1
            -1608111 -9437437</internalNodes>
          <leafValues>
            -7.3279058933258057e-01 8.0904906988143921e-01</leafValues></_>
        <_>
          <internalNodes>
            0 -1 46 323121546 -741896180 1296157454 -539144189
            1387116698 310444040 -872289557 -3150933</internalNodes>
          <leafValues>
            -8.8126498460769653e-01 7.0395070314407349e-01</leafValues></_></weakClassifiers></_>
    <!-- stage 7 -->
    <_>
      <maxWeakCount>2</maxWeakCount>
      <stageThreshold>-1.9040876626968384e-01</stageThreshold>
      <weakClassifiers>
        <_>
          <internalNodes>
            0 -1 56 -78384269 -27962415 8683531 782957307 -62787450
            -54394782 -670977467 -33701199</internalNodes>
          <leafValues>
            -8.7566608190536499e-01 7.6699030399322510e-01</leafValues></_>
        <_>
          <internalNodes>
            0 -1 22 -940059265 -1649436941 -1698438711 -322879000
            559879331 -230391792 1575974287 -118165822</internalNodes>
          <leafValues>
            -8.5585254430770874e-01 6.8525731563568115e-01</leafValues></_></weakClassifiers></_>
    <!-- stage 8 -->
    <_>
      <maxWeakCount>3</maxWeakCount>
      <stageThreshold>-8.6584633588790894e-01</stageThreshold>
      <weakClassifiers>
        <_>
          <internalNodes>
            0 -1 20 1945335807 293044189 -1981953 499089407 1736378335
            1599861145 -33 -540278819</internalNodes>
          <leafValues>
            -7.4254316091537476e-01 8.0169969797134399e-01</leafValues></_>
        <_>
          <internalNodes>
            0 -1 52 -188244705 1571138435 1902417179 -217474475
            1923986622 -239075296 -249908829 -151079169</internalNodes>
          <leafValues>
            -8.3901602029800415e-01 7.3021495342254639e-01</leafValues></_>
        <_>
          <internalNodes>
            0 -1 27 -2063495185 -674224673 184603525 -472419947
            155363528 -840365876 -1393820790 -1081681</internalNodes>
          <leafValues>
            -8.1826931238174438e-01 7.1571284532546997e-01</leafValues></_></weakClassifiers></_>
    <!-- stage 9 -->
    <_>
      <maxWeakCount>4</maxWeakCount>
      <stageThreshold>-1.4679552316665649e+00</stageThreshold>
      <weakClassifiers>
        <_>
          <internalNodes>
            0 -1 62 -16777233 -50332417 -285290513 -855703809 -65 -1
            -4097 -855638017</internalNodes>
          <leafValues>
            -7.2530865669250488e-01 8.0725193023681641e-01</leafValues></_>
        <_>
          <internalNodes>
            0 -1 17 1349517279 1430632047 -595323567 -106966770
            285587899 1795767273 -1970692627 -16784113</internalNodes>
          <leafValues>
            -7.3411864042282104e-01 7.4960297346115112e-01</leafValues></_>
        <_>
          <internalNodes>
            0 -1 45 1604703722 -250896097 1230455438 -1583357824
            1560756225 -352305023 1191826066 -339744177</internalNodes>
          <leafValues>
            -8.3718538284301758e-01 6.8319785594940186e-01</leafValues></_>
        <_>
          <internalNodes>
            0 -1 29 -525513 -8454890 -65553 2147483231 -553722635
            -268501121 -16777377 -285417734</internalNodes>
          <leafValues>
            -6.9172579050064087e-01 7.8469842672348022e-01</leafValues></_></weakClassifiers></_>
    <!-- stage 10 -->
    <_>
      <maxWeakCount>3</maxWeakCount>
      <stageThreshold>-9.2632418870925903e-01</stageThreshold>
      <weakClassifiers>
        <_>
          <internalNodes>
            0 -1 12 -774766625 1711347233 -526264431 -605305840
            1976372639 -668790868 1810887613 -57941907</internalNodes>
          <leafValues>
            -8.6837291717529297e-01 7.4064403772354126e-01</leafValues></_>
        <_>
          <internalNodes>
            0 -1 5 -226754673 -409631869 -1039841790 -15216317
            -123484701 -121191037 -241740271 -271582457</internalNodes>
          <leafValues>
            -7.5000470876693726e-01 7.3421812057495117e-01</leafValues></_>
        <_>
          <internalNodes>
            0 -1 30 -268373044 -213839615 -1191016667 -786980576
            -1324685654 -205285852 -208681073 -5547029</internalNodes>
          <leafValues>
            -8.2797908782958984e-01 6.9205349683761597e-01</leafValues></_></weakClassifiers></_>
    <!-- stage 11 -->
    <_>
      <maxWeakCount>4</maxWeakCount>
      <stageThreshold>-9.0349078178405762e-02</stageThreshold>
      <weakClassifiers>
        <_>
          <internalNodes>
            0 -1 6 -5 -1 -65741 -137 -1 -1 -8949904 -8915081</internalNodes>
          <leafValues>
            -7.5404530763626099e-01 7.8107607364654541e-01</leafValues></_>
        <_>
          <internalNodes>
            0 -1 18 2004350463 520718817 -1994994247 -9075508 1955052523
            2034145579 -627268951 -607434065</internalNodes>
          <leafValues>
            -7.3309344053268433e-01 7.4174880981445312e-01</leafValues></_>
        <_>
          <internalNodes>
            0 -1 36 -538977349 -1303705249 1413611985 -1868746594
            -662140689 -528416117 1625129103 1073291262</internalNodes>
          <leafValues>
            -9.0074527263641357e-01 6.1421757936477661e-01</leafValues></_>
        <_>
          <internalNodes>
            0 -1 32 -125895853 1035972571 -4390915 -33718337 -194056962
            -33685510 -33718835 -1124286787</internalNodes>
          <leafValues>
            -6.8324857950210571e-01 8.2269269227981567e-01</leafValues></_></weakClassifiers></_>
    <!-- stage 12 -->
    <_>
      <maxWeakCount>2</maxWeakCount>
      <stageThreshold>-1.7441368103027344e-01</stageThreshold>
      <weakClassifiers>
        <_>
          <internalNodes>
            0 -1 58 -712968452 -39903227 537460902 1233751195 -762910581
            1871386712 -268399985 1406127503</internalNodes>
          <leafValues>
            -9.0123456716537476e-01 6.7272728681564331e-01</leafValues></_>
        <_>
          <internalNodes>
            0 -1 64 -1089210369 -1602188937 -582491246 -1360885476
            -911554850 -1686002394 -2113681408 -1429214581</internalNodes>
          <leafValues>
            -7.7791094779968262e-01 7.2682088613510132e-01</leafValues></_></weakClassifiers></_>
    <!-- stage 13 -->
    <_>
      <maxWeakCount>4</maxWeakCount>
      <stageThreshold>-1.5235330164432526e-01</stageThreshold>
      <weakClassifiers>
        <_>
          <internalNodes>
            0 -1 51 -686688489 186786251 -2147129845 1069540822
            -265252340 -39665434 -671079765 -74723249</internalNodes>
          <leafValues>
            -8.9221554994583130e-01 6.8870294094085693e-01</leafValues></_>
        <_>
          <internalNodes>
            0 -1 53 -653050185 -1721605287 469904983 -189783391
            -1467967464 -101592141 -635332197 -22544677</internalNodes>
          <leafValues>
            -7.6426482200622559e-01 6.7947733402252197e-01</leafValues></_>
        <_>
          <internalNodes>
            0 -1 31 -209911841 -681764915 21053759 365498799 -1715495245
            -1987929937 398956797 -1546933208</internalNodes>
          <leafValues>
            -6.8401062488555908e-01 7.7453517913818359e-01</leafValues></_>
        <_>
          <internalNodes>
            0 -1 37 -573523027 -180057795 -1980640981 -242799710
            -208273505 295706647 -1473849893 -16783268</internalNodes>
          <leafValues>
            -7.1094733476638794e-01 7.4439555406570435e-01</leafValues></_></weakClassifiers></_>
    <!-- stage 14 -->
    <_>
      <maxWeakCount>5</maxWeakCount>
      <stageThreshold>-1.0474219322204590e+00</stageThreshold>
      <weakClassifiers>
        <_>
          <internalNodes>
            0 -1 8 -341844993 -350363841 1344553691 -574520427
            1644324048 -53604254 858028216 -288809783</internalNodes>
          <leafValues>
            -7.9310345649719238e-01 7.1004366874694824e-01</leafValues></_>
        <_>
          <internalNodes>
            0 -1 40 -11537817 -140369533 -266862233 -552530549 992072423
            -1685575159 -444018657 -65099094</internalNodes>
          <leafValues>
            -7.2392892837524414e-01 7.1055924892425537e-01</leafValues></_>
        <_>
          <internalNodes>
            0 -1 35 1460581286 -33717761 1628183991 -44412875 541115871
            -1719623558 1699241982 -1032949</internalNodes>
          <leafValues>
            -8.3485448360443115e-01 5.9426832199096680e-01</leafValues></_>
        <_>
          <internalNodes>
            0 -1 38 558725967 1623345867 6409 -660139497 834953476
            -972275060 -2147437362 -338068761</internalNodes>
          <leafValues>
            -7.7051901817321777e-01 6.6597169637680054e-01</leafValues></_>
        <_>
          <internalNodes>
            0 -1 21 2001197999 1968032519 -1869609003 -1782503414
            77650175 931279020 -2075483752 -1434598726</internalNodes>
          <leafValues>
            -7.8002643585205078e-01 6.4049577713012695e-01</leafValues></_></weakClassifiers></_>
    <!-- stage 15 -->
    <_>
      <maxWeakCount>4</maxWeakCount>
      <stageThreshold>-1.6116557121276855e+00</stageThreshold>
      <weakClassifiers>
        <_>
          <internalNodes>
            0 -1 10 -1047527457 -242183037 -1609190859 -725598191
            -602690625 -2147450694 -2088439771 -360758429</internalNodes>
          <leafValues>
            -7.5999999046325684e-01 6.9284468889236450e-01</leafValues></_>
        <_>
          <internalNodes>
            0 -1 2 -2117177857 -1898216057 -2113366641 -79046443
            -1987466845 -1634695489 -1664366419 -808464780</internalNodes>
          <leafValues>
            -7.0046591758728027e-01 6.9406908750534058e-01</leafValues></_>
        <_>
          <internalNodes>
            0 -1 43 -9240612 -742047271 -652130296 -127555040 -273951879
            1893777798 1053112971 2143775018</internalNodes>
          <leafValues>
            -9.2586129903793335e-01 5.5316454172134399e-01</leafValues></_>
        <_>
          <internalNodes>
            0 -1 54 -782773293 60115457 16908480 555027087 -246251480
            681585802 1073979530 -1277168721</internalNodes>
          <leafValues>
            -7.0435434579849243e-01 7.2811406850814819e-01</leafValues></_></weakClassifiers></_>
    <!-- stage 16 -->
    <_>
      <maxWeakCount>4</maxWeakCount>
      <stageThreshold>-3.2212564349174500e-01</stageThreshold>
      <weakClassifiers>
        <_>
          <internalNodes>
            0 -1 48 -715656069 1594710017 1359008785 1599937281
            -1651387753 -15469988 -1333783665 802963406</internalNodes>
          <leafValues>
            -8.8259959220886230e-01 6.5381461381912231e-01</leafValues></_>
        <_>
          <internalNodes>
            0 -1 24 2002779999 1998398495 -1 -36889 239583229 669734751
            -1 -17831953</internalNodes>
          <leafValues>
            -6.8402302265167236e-01 7.3890179395675659e-01</leafValues></_>
        <_>
          <internalNodes>
            0 -1 42 -1026555954 -536641457 1678033153 -951365373
            -786303606 1393049665 -582602485 1674527235</internalNodes>
          <leafValues>
            -8.1972867250442505e-01 6.1217683553695679e-01</leafValues></_>
        <_>
          <internalNodes>
            0 -1 26 -196946517 1342242919 -1476218409 -1807708107
            44073602 -2139092341 1749716394 -590448161</internalNodes>
          <leafValues>
            -7.8820461034774780e-01 6.4130079746246338e-01</leafValues></_></weakClassifiers></_>
    <!-- stage 17 -->
    <_>
      <maxWeakCount>3</maxWeakCount>
      <stageThreshold>-5.9343522787094116e-01</stageThreshold>
      <weakClassifiers>
        <_>
          <internalNodes>
            0 -1 61 -610929833 -612019435 -1710403561 -1814955689
            -2146934266 -1065352636 -1736408952 -1550716955</internalNodes>
          <leafValues>
            -7.3793101310729980e-01 7.2043013572692871e-01</leafValues></_>
        <_>
          <internalNodes>
            0 -1 57 -67379201 -187039766 -269545814 -706912273
            -386980162 13123070 -17879042 -204506385</internalNodes>
          <leafValues>
            -6.2966847419738770e-01 7.9491931200027466e-01</leafValues></_>
        <_>
          <internalNodes>
            0 -1 55 1529591727 -1065017 -1168171657 2147423579
            -1079263361 -1376389 -1687438465 -239078886</internalNodes>
          <leafValues>
            -6.5042352676391602e-01 7.9851049184799194e-01</leafValues></_></weakClassifiers></_>
    <!-- stage 18 -->
    <_>
      <maxWeakCount>4</maxWeakCount>
      <stageThreshold>-1.3069251179695129e-01</stageThreshold>
      <weakClassifiers>
        <_>
          <internalNodes>
            0 -1 39 -652937424 -1857880062 16941495 -544624367
            -1056640751 924909589 1676327055 -213780080</internalNodes>
          <leafValues>
            -8.0228137969970703e-01 6.8205130100250244e-01</leafValues></_>
        <_>
          <internalNodes>
            0 -1 33 1057827615 957240276 1207961601 -594865365 580391121
            -45853044 -1467968823 -20069926</internalNodes>
          <leafValues>
            -7.2253656387329102e-01 7.4654030799865723e-01</leafValues></_>
        <_>
          <internalNodes>
            0 -1 14 -691047937 -800681692 327385362 -212828159
            1661020221 1074135616 1940734027 -6062269</internalNodes>
          <leafValues>
            -7.6387596130371094e-01 7.1480333805084229e-01</leafValues></_>
        <_>
          <internalNodes>
            0 -1 50 -251505833 1343287696 142610567 2068054293
            -1073672191 2134016016 1073872898 -1783857120</internalNodes>
          <leafValues>
            -7.8078925609588623e-01 6.8892449140548706e-01</leafValues></_></weakClassifiers></_>
    <!-- stage 19 -->
    <_>
      <maxWeakCount>4</maxWeakCount>
      <stageThreshold>-1.2779952287673950e+00</stageThreshold>
      <weakClassifiers>
        <_>
          <internalNodes>
            0 -1 63 -8233 -285229057 -1073807361 -1930514449 -16789 -1
            -269554242 -823132161</internalNodes>
          <leafValues>
            -6.0000002384185791e-01 8.1338745355606079e-01</leafValues></_>
        <_>
          <internalNodes>
            0 -1 28 1195425446 -660676071 -1878932459 -1828633983
            55092734 -933493344 -1329010278 -1377879798</internalNodes>
          <leafValues>
            -7.5627028942108154e-01 7.0951700210571289e-01</leafValues></_>
        <_>
          <internalNodes>
            0 -1 44 -1982603877 1359095811 268435520 -720269309
            -1610317621 -536852470 302463706 995883950</internalNodes>
          <leafValues>
            -7.5141417980194092e-01 7.4601835012435913e-01</leafValues></_>
        <_>
          <internalNodes>
            0 -1 41 -1009822857 989199356 -1073741828 -393232 -201361413
            -6 -2049 -1107313158</internalNodes>
          <leafValues>
            -6.3609802722930908e-01 8.2644480466842651e-01</leafValues></_></weakClassifiers></_></stages>
  <features>
    <_>
      <rect>
        0 7 10 6</rect></_>
    <_>
      <rect>
        0 13 10 9</rect></_>
    <_>
      <rect>
        2 0 9 4</rect></_>
    <_>
      <rect>
        3 2 9 10</rect></_>
    <_>
      <rect>
        3 16 3 5</rect></_>
    <_>
      <rect>
        3 17 3 4</rect></_>
    <_>
      <rect>
        4 14 4 4</rect></_>
    <_>
      <rect>
        4 15 12 10</rect></_>
    <_>
      <rect>
        4 22 10 4</rect></_>
    <_>
      <rect>
        5 2 7 8</rect></_>
    <_>
      <rect>
        5 9 4 8</rect></_>
    <_>
      <rect>
        6 15 8 9</rect></_>
    <_>
      <rect>
        6 16 8 8</rect></_>
    <_>
      <rect>
        6 16 12 7</rect></_>
    <_>
      <rect>
        6 19 2 6</rect></_>
    <_>
      <rect>
        7 2 5 8</rect></_>
    <_>
      <rect>
        7 15 12 10</rect></_>
    <_>
      <rect>
        7 29 11 4</rect></_>
    <_>
      <rect>
        7 30 11 3</rect></_>
    <_>
      <rect>
        8 30 10 3</rect></_>
    <_>
      <rect>
        10 30 10 2</rect></_>
    <_>
      <rect>
        10 30 10 4</rect></_>
    <_>
      <rect>
        11 13 5 8</rect></_>
    <_>
      <rect>
        11 30 9 3</rect></_>
    <_>
      <rect>
        11 32 8 3</rect></_>
    <_>
      <rect>
        12 17 10 9</rect></_>
    <_>
      <rect>
        14 12 4 6</rect></_>
    <_>
      <rect>
        14 14 5 5</rect></_>
    <_>
      <rect>
        14 16 5 4</rect></_>
    <_>
      <rect>
        15 0 11 4</rect></_>
    <_>
      <rect>
        15 16 3 4</rect></_>
    <_>
      <rect>
        15 18 5 5</rect></_>
    <_>
      <rect>
        16 1 8 2</rect></_>
    <_>
      <rect>
        16 11 4 8</rect></_>
    <_>
      <rect>
        16 12 3 8</rect></_>
    <_>
      <rect>
        16 26 4 2</rect></_>
    <_>
      <rect>
        17 8 3 5</rect></_>
    <_>
      <rect>
        17 21 4 4</rect></_>
    <_>
      <rect>
        18 12 3 6</rect></_>
    <_>
      <rect>
        18 22 3 4</rect></_>
    <_>
      <rect>
        19 1 7 4</rect></_>
    <_>
      <rect>
        19 13 3 4</rect></_>
    <_>
      <rect>
        19 19 1 4</rect></_>
    <_>
      <rect>
        19 19 3 4</rect></_>
    <_>
      <rect>
        19 20 1 2</rect></_>
    <_>
      <rect>
        19 20 2 4</rect></_>
    <_>
      <rect>
        19 23 3 2</rect></_>
    <_>
      <rect>
        20 3 7 10</rect></_>
    <_>
      <rect>
        20 9 4 5</rect></_>
    <_>
      <rect>
        20 13 7 9</rect></_>
    <_>
      <rect>
        20 14 5 3</rect></_>
    <_>
      <rect>
        21 14 5 8</rect></_>
    <_>
      <rect>
        22 0 7 9</rect></_>
    <_>
      <rect>
        22 5 7 5</rect></_>
    <_>
      <rect>
        22 20 1 2</rect></_>
    <_>
      <rect>
        22 20 2 3</rect></_>
    <_>
      <rect>
        23 14 7 7</rect></_>
    <_>
      <rect>
        23 20 1 2</rect></_>
    <_>
      <rect>
        23 21 2 4</rect></_>
    <_>
      <rect>
        24 6 6 8</rect></_>
    <_>
      <rect>
        27 3 4 9</rect></_>
    <_>
      <rect>
        27 9 5 11</rect></_>
    <_>
      <rect>
        32 16 4 4</rect></_>
    <_>
      <rect>
        35 17 3 4</rect></_>
    <_>
      <rect>
        35 21 4 5</rect></_></features></cascade>
</opencv_storage>
