<?xml version="1.0"?>
<opencv_storage>
<cascade>
  <stageType>BOOST</stageType>
  <featureType>HAAR</featureType>
  <height>48</height>
  <width>48</width>
  <stageParams>
    <boostType>GAB</boostType>
    <minHitRate>9.9500000476837158e-01</minHitRate>
    <maxFalseAlarm>5.0000000000000000e-01</maxFalseAlarm>
    <weightTrimRate>9.4999999999999996e-01</weightTrimRate>
    <maxDepth>1</maxDepth>
    <maxWeakCount>100</maxWeakCount></stageParams>
  <featureParams>
    <maxCatCount>0</maxCatCount>
    <featSize>1</featSize>
    <mode>BASIC</mode></featureParams>
  <stageNum>8</stageNum>
  <stages>
    <!-- stage 0 -->
    <_>
      <maxWeakCount>2</maxWeakCount>
      <stageThreshold>-2.1881896257400513e-01</stageThreshold>
      <weakClassifiers>
        <_>
          <internalNodes>
            0 -1 6 -6.3886053860187531e-02</internalNodes>
          <leafValues>
            9.1412216424942017e-01 -8.9814811944961548e-01</leafValues></_>
        <_>
          <internalNodes>
            0 -1 30 1.7067091539502144e-03</internalNodes>
          <leafValues>
            -8.9837652444839478e-01 6.7932921648025513e-01</leafValues></_></weakClassifiers></_>
    <!-- stage 1 -->
    <_>
      <maxWeakCount>3</maxWeakCount>
      <stageThreshold>-7.6475900411605835e-01</stageThreshold>
      <weakClassifiers>
        <_>
          <internalNodes>
            0 -1 2 -1.7139612138271332e-01</internalNodes>
          <leafValues>
            8.8044577836990356e-01 -6.9534558057785034e-01</leafValues></_>
        <_>
          <internalNodes>
            0 -1 20 -5.2527613937854767e-02</internalNodes>
          <leafValues>
            7.8640389442443848e-01 -5.3886765241622925e-01</leafValues></_>
        <_>
          <internalNodes>
            0 -1 31 -9.5028901705518365e-04</internalNodes>
          <leafValues>
            4.6945422887802124e-01 -8.8162910938262939e-01</leafValues></_></weakClassifiers></_>
    <!-- stage 2 -->
    <_>
      <maxWeakCount>4</maxWeakCount>
      <stageThreshold>-6.6614145040512085e-01</stageThreshold>
      <weakClassifiers>
        <_>
          <internalNodes>
            0 -1 1 -1.5634119510650635e-01</internalNodes>
          <leafValues>
            8.2033562660217285e-01 -6.6617864370346069e-01</leafValues></_>
        <_>
          <internalNodes>
            0 -1 13 -9.9760510027408600e-02</internalNodes>
          <leafValues>
            6.1489236354827881e-01 -7.4420428276062012e-01</leafValues></_>
        <_>
          <internalNodes>
            0 -1 10 -1.7090588808059692e-03</internalNodes>
          <leafValues>
            3.7926635146141052e-01 -9.2336958646774292e-01</leafValues></_>
        <_>
          <internalNodes>
            0 -1 29 -1.8825613369699568e-04</internalNodes>
          <leafValues>
            3.6497509479522705e-01 -7.8931254148483276e-01</leafValues></_></weakClassifiers></_>
    <!-- stage 3 -->
    <_>
      <maxWeakCount>6</maxWeakCount>
      <stageThreshold>-1.0122256278991699e+00</stageThreshold>
      <weakClassifiers>
        <_>
          <internalNodes>
            0 -1 5 -1.1769128963351250e-02</internalNodes>
          <leafValues>
            7.1297991275787354e-01 -6.7109632492065430e-01</leafValues></_>
        <_>
          <internalNodes>
            0 -1 19 -2.7020309120416641e-02</internalNodes>
          <leafValues>
            7.3366254568099976e-01 -5.8231139183044434e-01</leafValues></_>
        <_>
          <internalNodes>
            0 -1 33 -7.2991859633475542e-04</internalNodes>
          <leafValues>
            -9.6253019571304321e-01 4.1408196091651917e-01</leafValues></_>
        <_>
          <internalNodes>
            0 -1 32 -3.3706151880323887e-03</internalNodes>
          <leafValues>
            4.3795174360275269e-01 -7.7403748035430908e-01</leafValues></_>
        <_>
          <internalNodes>
            0 -1 15 1.8600985640659928e-04</internalNodes>
          <leafValues>
            -9.9735671281814575e-01 2.0463566482067108e-01</leafValues></_>
        <_>
          <internalNodes>
            0 -1 22 1.2394289486110210e-02</internalNodes>
          <leafValues>
            3.9650198817253113e-01 -9.6516174077987671e-01</leafValues></_></weakClassifiers></_>
    <!-- stage 4 -->
    <_>
      <maxWeakCount>4</maxWeakCount>
      <stageThreshold>-2.7047154307365417e-01</stageThreshold>
      <weakClassifiers>
        <_>
          <internalNodes>
            0 -1 35 -4.1949197649955750e-02</internalNodes>
          <leafValues>
            7.4927115440368652e-01 -5.9220391511917114e-01</leafValues></_>
        <_>
          <internalNodes>
            0 -1 14 -7.2538899257779121e-04</internalNodes>
          <leafValues>
            -9.6180552244186401e-01 4.4548168778419495e-01</leafValues></_>
        <_>
          <internalNodes>
            0 -1 4 -3.0076313018798828e-01</internalNodes>
          <leafValues>
            6.6742724180221558e-01 -5.1595562696456909e-01</leafValues></_>
        <_>
          <internalNodes>
            0 -1 26 2.4234177544713020e-03</internalNodes>
          <leafValues>
            3.9220631122589111e-01 -9.4411265850067139e-01</leafValues></_></weakClassifiers></_>
    <!-- stage 5 -->
    <_>
      <maxWeakCount>6</maxWeakCount>
      <stageThreshold>-5.5162310600280762e-01</stageThreshold>
      <weakClassifiers>
        <_>
          <internalNodes>
            0 -1 8 2.9324591159820557e-03</internalNodes>
          <leafValues>
            6.1264181137084961e-01 -8.2251083850860596e-01</leafValues></_>
        <_>
          <internalNodes>
            0 -1 0 -1.5884590148925781e-01</internalNodes>
          <leafValues>
            8.3209955692291260e-01 -4.1322752833366394e-01</leafValues></_>
        <_>
          <internalNodes>
            0 -1 25 5.4644979536533356e-04</internalNodes>
          <leafValues>
            -5.6616443395614624e-01 5.3365975618362427e-01</leafValues></_>
        <_>
          <internalNodes>
            0 -1 7 -3.3169856667518616e-01</internalNodes>
          <leafValues>
            6.7604970932006836e-01 -4.3479165434837341e-01</leafValues></_>
        <_>
          <internalNodes>
            0 -1 27 1.6328189522027969e-03</internalNodes>
          <leafValues>
            -9.5051532983779907e-01 2.8903445601463318e-01</leafValues></_>
        <_>
          <internalNodes>
            0 -1 28 7.3273159796372056e-04</internalNodes>
          <leafValues>
            2.9621273279190063e-01 -9.2088115215301514e-01</leafValues></_></weakClassifiers></_>
    <!-- stage 6 -->
    <_>
      <maxWeakCount>5</maxWeakCount>
      <stageThreshold>-5.1963961124420166e-01</stageThreshold>
      <weakClassifiers>
        <_>
          <internalNodes>
            0 -1 11 -1.1725874617695808e-02</internalNodes>
          <leafValues>
            6.8858802318572998e-01 -5.0755286216735840e-01</leafValues></_>
        <_>
          <internalNodes>
            0 -1 9 -4.9971218686550856e-04</internalNodes>
          <leafValues>
            3.5262569785118103e-01 -9.5977759361267090e-01</leafValues></_>
        <_>
          <internalNodes>
            0 -1 16 -9.9052733276039362e-04</internalNodes>
          <leafValues>
            -9.2675060033798218e-01 3.6492377519607544e-01</leafValues></_>
        <_>
          <internalNodes>
            0 -1 34 2.0676914573414251e-05</internalNodes>
          <leafValues>
            -8.0741804838180542e-01 2.5815182924270630e-01</leafValues></_>
        <_>
          <internalNodes>
            0 -1 23 3.1282422132790089e-03</internalNodes>
          <leafValues>
            3.0388635396957397e-01 -8.7172412872314453e-01</leafValues></_></weakClassifiers></_>
    <!-- stage 7 -->
    <_>
      <maxWeakCount>6</maxWeakCount>
      <stageThreshold>-1.0048151016235352e+00</stageThreshold>
      <weakClassifiers>
        <_>
          <internalNodes>
            0 -1 3 -1.0236793197691441e-02</internalNodes>
          <leafValues>
            6.0934889316558838e-01 -7.1084338426589966e-01</leafValues></_>
        <_>
          <internalNodes>
            0 -1 24 -3.5644983872771263e-03</internalNodes>
          <leafValues>
            5.9542959928512573e-01 -5.3619128465652466e-01</leafValues></_>
        <_>
          <internalNodes>
            0 -1 12 -4.9973479472100735e-03</internalNodes>
          <leafValues>
            5.6710296869277954e-01 -5.2281135320663452e-01</leafValues></_>
        <_>
          <internalNodes>
            0 -1 17 -1.9180155359208584e-03</internalNodes>
          <leafValues>
            -8.8443648815155029e-01 3.1061708927154541e-01</leafValues></_>
        <_>
          <internalNodes>
            0 -1 21 1.3166719581931829e-03</internalNodes>
          <leafValues>
            3.1475567817687988e-01 -8.9420616626739502e-01</leafValues></_>
        <_>
          <internalNodes>
            0 -1 18 1.4302931958809495e-04</internalNodes>
          <leafValues>
            -1. 1.3965813815593719e-01</leafValues></_></weakClassifiers></_></stages>
  <features>
    <_>
      <rects>
        <_>
          0 7 48 9 -1.</_>
        <_>
          16 7 16 9 3.</_></rects>
      <tilted>0</tilted></_>
    <_>
      <rects>
        <_>
          1 4 39 37 -1.</_>
        <_>
          14 4 13 37 3.</_></rects>
      <tilted>0</tilted></_>
    <_>
      <rects>
        <_>
          2 7 42 29 -1.</_>
        <_>
          16 7 14 29 3.</_></rects>
      <tilted>0</tilted></_>
    <_>
      <rects>
        <_>
          2 21 30 9 -1.</_>
        <_>
          12 21 10 9 3.</_></rects>
      <tilted>0</tilted></_>
    <_>
      <rects>
        <_>
          3 4 45 37 -1.</_>
        <_>
          18 4 15 37 3.</_></rects>
      <tilted>0</tilted></_>
    <_>
      <rects>
        <_>
          4 14 21 16 -1.</_>
        <_>
          11 14 7 16 3.</_></rects>
      <tilted>0</tilted></_>
    <_>
      <rects>
        <_>
          5 11 39 20 -1.</_>
        <_>
          18 11 13 20 3.</_></rects>
      <tilted>0</tilted></_>
    <_>
      <rects>
        <_>
          7 2 33 45 -1.</_>
        <_>
          7 17 33 15 3.</_></rects>
      <tilted>0</tilted></_>
    <_>
      <rects>
        <_>
          9 15 31 14 -1.</_>
        <_>
          9 22 31 7 2.</_></rects>
      <tilted>0</tilted></_>
    <_>
      <rects>
        <_>
          9 18 22 12 -1.</_>
        <_>
          20 18 11 12 2.</_></rects>
      <tilted>0</tilted></_>
    <_>
      <rects>
        <_>
          10 14 14 3 -1.</_>
        <_>
          17 14 7 3 2.</_></rects>
      <tilted>0</tilted></_>
    <_>
      <rects>
        <_>
          11 0 1 48 -1.</_>
        <_>
          11 16 1 16 3.</_></rects>
      <tilted>0</tilted></_>
    <_>
      <rects>
        <_>
          11 34 24 5 -1.</_>
        <_>
          19 34 8 5 3.</_></rects>
      <tilted>0</tilted></_>
    <_>
      <rects>
        <_>
          14 0 17 42 -1.</_>
        <_>
          14 14 17 14 3.</_></rects>
      <tilted>0</tilted></_>
    <_>
      <rects>
        <_>
          14 15 16 14 -1.</_>
        <_>
          14 22 16 7 2.</_></rects>
      <tilted>0</tilted></_>
    <_>
      <rects>
        <_>
          14 19 24 8 -1.</_>
        <_>
          26 19 12 8 2.</_></rects>
      <tilted>0</tilted></_>
    <_>
      <rects>
        <_>
          14 20 22 9 -1.</_>
        <_>
          25 20 11 9 2.</_></rects>
      <tilted>0</tilted></_>
    <_>
      <rects>
        <_>
          14 21 20 8 -1.</_>
        <_>
          24 21 10 8 2.</_></rects>
      <tilted>0</tilted></_>
    <_>
      <rects>
        <_>
          15 16 20 18 -1.</_>
        <_>
          15 25 20 9 2.</_></rects>
      <tilted>0</tilted></_>
    <_>
      <rects>
        <_>
          16 0 11 12 -1.</_>
        <_>
          16 6 11 6 2.</_></rects>
      <tilted>0</tilted></_>
    <_>
      <rects>
        <_>
          16 0 16 18 -1.</_>
        <_>
          16 9 16 9 2.</_></rects>
      <tilted>0</tilted></_>
    <_>
      <rects>
        <_>
          17 20 14 10 -1.</_>
        <_>
          24 20 7 10 2.</_></rects>
      <tilted>0</tilted></_>
    <_>
      <rects>
        <_>
          18 14 16 15 -1.</_>
        <_>
          26 14 8 15 2.</_></rects>
      <tilted>0</tilted></_>
    <_>
      <rects>
        <_>
          18 20 16 9 -1.</_>
        <_>
          26 20 8 9 2.</_></rects>
      <tilted>0</tilted></_>
    <_>
      <rects>
        <_>
          20 2 5 6 -1.</_>
        <_>
          20 5 5 3 2.</_></rects>
      <tilted>0</tilted></_>
    <_>
      <rects>
        <_>
          20 14 5 12 -1.</_>
        <_>
          20 18 5 4 3.</_></rects>
      <tilted>0</tilted></_>
    <_>
      <rects>
        <_>
          21 14 6 24 -1.</_>
        <_>
          21 22 6 8 3.</_></rects>
      <tilted>0</tilted></_>
    <_>
      <rects>
        <_>
          22 13 5 24 -1.</_>
        <_>
          22 25 5 12 2.</_></rects>
      <tilted>0</tilted></_>
    <_>
      <rects>
        <_>
          22 25 3 8 -1.</_>
        <_>
          22 29 3 4 2.</_></rects>
      <tilted>0</tilted></_>
    <_>
      <rects>
        <_>
          22 25 3 15 -1.</_>
        <_>
          22 30 3 5 3.</_></rects>
      <tilted>0</tilted></_>
    <_>
      <rects>
        <_>
          23 14 14 3 -1.</_>
        <_>
          30 14 7 3 2.</_></rects>
      <tilted>0</tilted></_>
    <_>
      <rects>
        <_>
          23 18 18 11 -1.</_>
        <_>
          29 18 6 11 3.</_></rects>
      <tilted>0</tilted></_>
    <_>
      <rects>
        <_>
          23 20 21 10 -1.</_>
        <_>
          30 20 7 10 3.</_></rects>
      <tilted>0</tilted></_>
    <_>
      <rects>
        <_>
          23 22 10 6 -1.</_>
        <_>
          28 22 5 6 2.</_></rects>
      <tilted>0</tilted></_>
    <_>
      <rects>
        <_>
          23 24 2 2 -1.</_>
        <_>
          23 25 2 1 2.</_></rects>
      <tilted>0</tilted></_>
    <_>
      <rects>
        <_>
          31 0 8 30 -1.</_>
        <_>
          31 15 8 15 2.</_></rects>
      <tilted>0</tilted></_></features></cascade>
</opencv_storage>
